digraph Tree {
node [shape=box] ;
0 [label="X[10] <= 0.5\ngini = 0.5\nsamples = 1612\nvalue = [813, 799]"] ;
1 [label="X[5] <= 0.5\ngini = 0.469\nsamples = 1199\nvalue = [748, 451]"] ;
0 -> 1 [labeldistance=2.5, labelangle=45, headlabel="True"] ;
2 [label="X[7] <= 0.5\ngini = 0.388\nsamples = 884\nvalue = [651, 233]"] ;
1 -> 2 ;
3 [label="X[11] <= 0.5\ngini = 0.373\nsamples = 852\nvalue = [641, 211]"] ;
2 -> 3 ;
4 [label="X[12] <= 0.5\ngini = 0.35\nsamples = 792\nvalue = [613, 179]"] ;
3 -> 4 ;
5 [label="X[6] <= 0.5\ngini = 0.139\nsamples = 213\nvalue = [197, 16]"] ;
4 -> 5 ;
6 [label="X[2] <= 0.5\ngini = 0.457\nsamples = 34\nvalue = [22, 12]"] ;
5 -> 6 ;
7 [label="X[4] <= 1.0\ngini = 0.412\nsamples = 31\nvalue = [22, 9]"] ;
6 -> 7 ;
8 [label="X[8] <= 0.5\ngini = 0.375\nsamples = 20\nvalue = [15, 5]"] ;
7 -> 8 ;
9 [label="gini = 0.43\nsamples = 16\nvalue = [11, 5]"] ;
8 -> 9 ;
10 [label="gini = 0.0\nsamples = 4\nvalue = [4, 0]"] ;
8 -> 10 ;
11 [label="X[8] <= 0.5\ngini = 0.463\nsamples = 11\nvalue = [7, 4]"] ;
7 -> 11 ;
12 [label="gini = 0.408\nsamples = 7\nvalue = [5, 2]"] ;
11 -> 12 ;
13 [label="gini = 0.5\nsamples = 4\nvalue = [2, 2]"] ;
11 -> 13 ;
14 [label="gini = 0.0\nsamples = 3\nvalue = [0, 3]"] ;
6 -> 14 ;
15 [label="X[8] <= 0.5\ngini = 0.044\nsamples = 179\nvalue = [175, 4]"] ;
5 -> 15 ;
16 [label="gini = 0.0\nsamples = 1\nvalue = [0, 1]"] ;
15 -> 16 ;
17 [label="X[8] <= 1.5\ngini = 0.033\nsamples = 178\nvalue = [175, 3]"] ;
15 -> 17 ;
18 [label="gini = 0.0\nsamples = 154\nvalue = [154, 0]"] ;
17 -> 18 ;
19 [label="X[4] <= 0.5\ngini = 0.219\nsamples = 24\nvalue = [21, 3]"] ;
17 -> 19 ;
20 [label="X[6] <= 1.5\ngini = 0.091\nsamples = 21\nvalue = [20, 1]"] ;
19 -> 20 ;
21 [label="gini = 0.0\nsamples = 1\nvalue = [0, 1]"] ;
20 -> 21 ;
22 [label="gini = 0.0\nsamples = 20\nvalue = [20, 0]"] ;
20 -> 22 ;
23 [label="gini = 0.444\nsamples = 3\nvalue = [1, 2]"] ;
19 -> 23 ;
24 [label="X[8] <= 0.5\ngini = 0.405\nsamples = 579\nvalue = [416, 163]"] ;
4 -> 24 ;
25 [label="X[2] <= 0.5\ngini = 0.241\nsamples = 164\nvalue = [141, 23]"] ;
24 -> 25 ;
26 [label="X[4] <= 0.5\ngini = 0.195\nsamples = 155\nvalue = [138, 17]"] ;
25 -> 26 ;
27 [label="X[12] <= 1.5\ngini = 0.28\nsamples = 95\nvalue = [79, 16]"] ;
26 -> 27 ;
28 [label="X[6] <= 1.0\ngini = 0.307\nsamples = 58\nvalue = [47, 11]"] ;
27 -> 28 ;
29 [label="gini = 0.293\nsamples = 56\nvalue = [46, 10]"] ;
28 -> 29 ;
30 [label="gini = 0.5\nsamples = 2\nvalue = [1, 1]"] ;
28 -> 30 ;
31 [label="X[6] <= 1.0\ngini = 0.234\nsamples = 37\nvalue = [32, 5]"] ;
27 -> 31 ;
32 [label="gini = 0.251\nsamples = 34\nvalue = [29, 5]"] ;
31 -> 32 ;
33 [label="gini = 0.0\nsamples = 3\nvalue = [3, 0]"] ;
31 -> 33 ;
34 [label="X[6] <= 1.5\ngini = 0.033\nsamples = 60\nvalue = [59, 1]"] ;
26 -> 34 ;
35 [label="gini = 0.0\nsamples = 55\nvalue = [55, 0]"] ;
34 -> 35 ;
36 [label="gini = 0.32\nsamples = 5\nvalue = [4, 1]"] ;
34 -> 36 ;
37 [label="X[6] <= 1.0\ngini = 0.444\nsamples = 9\nvalue = [3, 6]"] ;
25 -> 37 ;
38 [label="X[12] <= 1.5\ngini = 0.375\nsamples = 8\nvalue = [2, 6]"] ;
37 -> 38 ;
39 [label="X[4] <= 1.0\ngini = 0.444\nsamples = 6\nvalue = [2, 4]"] ;
38 -> 39 ;
40 [label="gini = 0.375\nsamples = 4\nvalue = [1, 3]"] ;
39 -> 40 ;
41 [label="gini = 0.5\nsamples = 2\nvalue = [1, 1]"] ;
39 -> 41 ;
42 [label="gini = 0.0\nsamples = 2\nvalue = [0, 2]"] ;
38 -> 42 ;
43 [label="gini = 0.0\nsamples = 1\nvalue = [1, 0]"] ;
37 -> 43 ;
44 [label="X[12] <= 1.5\ngini = 0.447\nsamples = 415\nvalue = [275, 140]"] ;
24 -> 44 ;
45 [label="X[6] <= 1.5\ngini = 0.483\nsamples = 247\nvalue = [146, 101]"] ;
44 -> 45 ;
46 [label="X[6] <= 0.5\ngini = 0.498\nsamples = 176\nvalue = [94, 82]"] ;
45 -> 46 ;
47 [label="X[3] <= 0.5\ngini = 0.474\nsamples = 145\nvalue = [89, 56]"] ;
46 -> 47 ;
48 [label="X[2] <= 0.5\ngini = 0.472\nsamples = 144\nvalue = [89, 55]"] ;
47 -> 48 ;
49 [label="X[4] <= 0.5\ngini = 0.479\nsamples = 131\nvalue = [79, 52]"] ;
48 -> 49 ;
50 [label="gini = 0.485\nsamples = 114\nvalue = [67, 47]"] ;
49 -> 50 ;
51 [label="X[4] <= 1.5\ngini = 0.415\nsamples = 17\nvalue = [12, 5]"] ;
49 -> 51 ;
52 [label="gini = 0.0\nsamples = 1\nvalue = [1, 0]"] ;
51 -> 52 ;
53 [label="gini = 0.43\nsamples = 16\nvalue = [11, 5]"] ;
51 -> 53 ;
54 [label="X[4] <= 1.0\ngini = 0.355\nsamples = 13\nvalue = [10, 3]"] ;
48 -> 54 ;
55 [label="gini = 0.375\nsamples = 12\nvalue = [9, 3]"] ;
54 -> 55 ;
56 [label="gini = 0.0\nsamples = 1\nvalue = [1, 0]"] ;
54 -> 56 ;
57 [label="gini = 0.0\nsamples = 1\nvalue = [0, 1]"] ;
47 -> 57 ;
58 [label="X[1] <= 0.5\ngini = 0.271\nsamples = 31\nvalue = [5, 26]"] ;
46 -> 58 ;
59 [label="X[4] <= 1.5\ngini = 0.311\nsamples = 26\nvalue = [5, 21]"] ;
58 -> 59 ;
60 [label="X[4] <= 0.5\ngini = 0.346\nsamples = 18\nvalue = [4, 14]"] ;
59 -> 60 ;
61 [label="X[2] <= 0.5\ngini = 0.305\nsamples = 16\nvalue = [3, 13]"] ;
60 -> 61 ;
62 [label="gini = 0.32\nsamples = 15\nvalue = [3, 12]"] ;
61 -> 62 ;
63 [label="gini = 0.0\nsamples = 1\nvalue = [0, 1]"] ;
61 -> 63 ;
64 [label="gini = 0.5\nsamples = 2\nvalue = [1, 1]"] ;
60 -> 64 ;
65 [label="gini = 0.219\nsamples = 8\nvalue = [1, 7]"] ;
59 -> 65 ;
66 [label="gini = 0.0\nsamples = 5\nvalue = [0, 5]"] ;
58 -> 66 ;
67 [label="X[4] <= 0.5\ngini = 0.392\nsamples = 71\nvalue = [52, 19]"] ;
45 -> 67 ;
68 [label="X[2] <= 0.5\ngini = 0.357\nsamples = 56\nvalue = [43, 13]"] ;
67 -> 68 ;
69 [label="X[8] <= 1.5\ngini = 0.375\nsamples = 48\nvalue = [36, 12]"] ;
68 -> 69 ;
70 [label="gini = 0.444\nsamples = 3\nvalue = [2, 1]"] ;
69 -> 70 ;
71 [label="gini = 0.369\nsamples = 45\nvalue = [34, 11]"] ;
69 -> 71 ;
72 [label="gini = 0.219\nsamples = 8\nvalue = [7, 1]"] ;
68 -> 72 ;
73 [label="X[4] <= 1.5\ngini = 0.48\nsamples = 15\nvalue = [9, 6]"] ;
67 -> 73 ;
74 [label="gini = 0.0\nsamples = 2\nvalue = [0, 2]"] ;
73 -> 74 ;
75 [label="X[2] <= 0.5\ngini = 0.426\nsamples = 13\nvalue = [9, 4]"] ;
73 -> 75 ;
76 [label="X[8] <= 1.5\ngini = 0.444\nsamples = 12\nvalue = [8, 4]"] ;
75 -> 76 ;
77 [label="gini = 0.444\nsamples = 9\nvalue = [6, 3]"] ;
76 -> 77 ;
78 [label="gini = 0.444\nsamples = 3\nvalue = [2, 1]"] ;
76 -> 78 ;
79 [label="gini = 0.0\nsamples = 1\nvalue = [1, 0]"] ;
75 -> 79 ;
80 [label="X[2] <= 0.5\ngini = 0.357\nsamples = 168\nvalue = [129, 39]"] ;
44 -> 80 ;
81 [label="X[8] <= 1.5\ngini = 0.335\nsamples = 160\nvalue = [126, 34]"] ;
80 -> 81 ;
82 [label="X[6] <= 0.5\ngini = 0.375\nsamples = 120\nvalue = [90, 30]"] ;
81 -> 82 ;
83 [label="X[4] <= 0.5\ngini = 0.32\nsamples = 85\nvalue = [68, 17]"] ;
82 -> 83 ;
84 [label="gini = 0.375\nsamples = 60\nvalue = [45, 15]"] ;
83 -> 84 ;
85 [label="X[4] <= 1.5\ngini = 0.147\nsamples = 25\nvalue = [23, 2]"] ;
83 -> 85 ;
86 [label="gini = 0.0\nsamples = 1\nvalue = [1, 0]"] ;
85 -> 86 ;
87 [label="gini = 0.153\nsamples = 24\nvalue = [22, 2]"] ;
85 -> 87 ;
88 [label="X[4] <= 1.5\ngini = 0.467\nsamples = 35\nvalue = [22, 13]"] ;
82 -> 88 ;
89 [label="X[4] <= 0.5\ngini = 0.428\nsamples = 29\nvalue = [20, 9]"] ;
88 -> 89 ;
90 [label="X[6] <= 1.5\ngini = 0.434\nsamples = 22\nvalue = [15, 7]"] ;
89 -> 90 ;
91 [label="gini = 0.43\nsamples = 16\nvalue = [11, 5]"] ;
90 -> 91 ;
92 [label="gini = 0.444\nsamples = 6\nvalue = [4, 2]"] ;
90 -> 92 ;
93 [label="gini = 0.408\nsamples = 7\nvalue = [5, 2]"] ;
89 -> 93 ;
94 [label="X[6] <= 1.5\ngini = 0.444\nsamples = 6\nvalue = [2, 4]"] ;
88 -> 94 ;
95 [label="gini = 0.48\nsamples = 5\nvalue = [2, 3]"] ;
94 -> 95 ;
96 [label="gini = 0.0\nsamples = 1\nvalue = [0, 1]"] ;
94 -> 96 ;
97 [label="X[4] <= 1.0\ngini = 0.18\nsamples = 40\nvalue = [36, 4]"] ;
81 -> 97 ;
98 [label="gini = 0.083\nsamples = 23\nvalue = [22, 1]"] ;
97 -> 98 ;
99 [label="gini = 0.291\nsamples = 17\nvalue = [14, 3]"] ;
97 -> 99 ;
100 [label="X[6] <= 1.5\ngini = 0.469\nsamples = 8\nvalue = [3, 5]"] ;
80 -> 100 ;
101 [label="X[4] <= 0.5\ngini = 0.408\nsamples = 7\nvalue = [2, 5]"] ;
100 -> 101 ;
102 [label="gini = 0.444\nsamples = 6\nvalue = [2, 4]"] ;
101 -> 102 ;
103 [label="gini = 0.0\nsamples = 1\nvalue = [0, 1]"] ;
101 -> 103 ;
104 [label="gini = 0.0\nsamples = 1\nvalue = [1, 0]"] ;
100 -> 104 ;
105 [label="X[12] <= 0.5\ngini = 0.498\nsamples = 60\nvalue = [28, 32]"] ;
3 -> 105 ;
106 [label="X[8] <= 1.5\ngini = 0.137\nsamples = 27\nvalue = [2, 25]"] ;
105 -> 106 ;
107 [label="X[8] <= 0.5\ngini = 0.074\nsamples = 26\nvalue = [1, 25]"] ;
106 -> 107 ;
108 [label="gini = 0.142\nsamples = 13\nvalue = [1, 12]"] ;
107 -> 108 ;
109 [label="gini = 0.0\nsamples = 13\nvalue = [0, 13]"] ;
107 -> 109 ;
110 [label="gini = 0.0\nsamples = 1\nvalue = [1, 0]"] ;
106 -> 110 ;
111 [label="X[12] <= 1.5\ngini = 0.334\nsamples = 33\nvalue = [26, 7]"] ;
105 -> 111 ;
112 [label="X[6] <= 0.5\ngini = 0.48\nsamples = 15\nvalue = [9, 6]"] ;
111 -> 112 ;
113 [label="X[4] <= 1.0\ngini = 0.397\nsamples = 11\nvalue = [8, 3]"] ;
112 -> 113 ;
114 [label="gini = 0.42\nsamples = 10\nvalue = [7, 3]"] ;
113 -> 114 ;
115 [label="gini = 0.0\nsamples = 1\nvalue = [1, 0]"] ;
113 -> 115 ;
116 [label="X[6] <= 1.5\ngini = 0.375\nsamples = 4\nvalue = [1, 3]"] ;
112 -> 116 ;
117 [label="gini = 0.0\nsamples = 3\nvalue = [0, 3]"] ;
116 -> 117 ;
118 [label="gini = 0.0\nsamples = 1\nvalue = [1, 0]"] ;
116 -> 118 ;
119 [label="X[2] <= 0.5\ngini = 0.105\nsamples = 18\nvalue = [17, 1]"] ;
111 -> 119 ;
120 [label="gini = 0.0\nsamples = 16\nvalue = [16, 0]"] ;
119 -> 120 ;
121 [label="X[4] <= 1.0\ngini = 0.5\nsamples = 2\nvalue = [1, 1]"] ;
119 -> 121 ;
122 [label="gini = 0.0\nsamples = 1\nvalue = [0, 1]"] ;
121 -> 122 ;
123 [label="gini = 0.0\nsamples = 1\nvalue = [1, 0]"] ;
121 -> 123 ;
124 [label="X[8] <= 0.5\ngini = 0.43\nsamples = 32\nvalue = [10, 22]"] ;
2 -> 124 ;
125 [label="gini = 0.0\nsamples = 3\nvalue = [3, 0]"] ;
124 -> 125 ;
126 [label="X[12] <= 1.5\ngini = 0.366\nsamples = 29\nvalue = [7, 22]"] ;
124 -> 126 ;
127 [label="X[6] <= 0.5\ngini = 0.188\nsamples = 19\nvalue = [2, 17]"] ;
126 -> 127 ;
128 [label="gini = 0.5\nsamples = 2\nvalue = [1, 1]"] ;
127 -> 128 ;
129 [label="X[4] <= 1.5\ngini = 0.111\nsamples = 17\nvalue = [1, 16]"] ;
127 -> 129 ;
130 [label="gini = 0.0\nsamples = 7\nvalue = [0, 7]"] ;
129 -> 130 ;
131 [label="X[1] <= 0.5\ngini = 0.18\nsamples = 10\nvalue = [1, 9]"] ;
129 -> 131 ;
132 [label="gini = 0.198\nsamples = 9\nvalue = [1, 8]"] ;
131 -> 132 ;
133 [label="gini = 0.0\nsamples = 1\nvalue = [0, 1]"] ;
131 -> 133 ;
134 [label="X[2] <= 0.5\ngini = 0.5\nsamples = 10\nvalue = [5, 5]"] ;
126 -> 134 ;
135 [label="X[4] <= 1.0\ngini = 0.494\nsamples = 9\nvalue = [5, 4]"] ;
134 -> 135 ;
136 [label="X[6] <= 0.5\ngini = 0.48\nsamples = 5\nvalue = [2, 3]"] ;
135 -> 136 ;
137 [label="gini = 0.0\nsamples = 1\nvalue = [1, 0]"] ;
136 -> 137 ;
138 [label="gini = 0.375\nsamples = 4\nvalue = [1, 3]"] ;
136 -> 138 ;
139 [label="X[11] <= 0.5\ngini = 0.375\nsamples = 4\nvalue = [3, 1]"] ;
135 -> 139 ;
140 [label="gini = 0.444\nsamples = 3\nvalue = [2, 1]"] ;
139 -> 140 ;
141 [label="gini = 0.0\nsamples = 1\nvalue = [1, 0]"] ;
139 -> 141 ;
142 [label="gini = 0.0\nsamples = 1\nvalue = [0, 1]"] ;
134 -> 142 ;
143 [label="X[12] <= 0.5\ngini = 0.426\nsamples = 315\nvalue = [97, 218]"] ;
1 -> 143 ;
144 [label="X[6] <= 1.5\ngini = 0.38\nsamples = 51\nvalue = [38, 13]"] ;
143 -> 144 ;
145 [label="X[4] <= 0.5\ngini = 0.325\nsamples = 44\nvalue = [35, 9]"] ;
144 -> 145 ;
146 [label="X[5] <= 1.5\ngini = 0.48\nsamples = 5\nvalue = [2, 3]"] ;
145 -> 146 ;
147 [label="gini = 0.0\nsamples = 3\nvalue = [0, 3]"] ;
146 -> 147 ;
148 [label="gini = 0.0\nsamples = 2\nvalue = [2, 0]"] ;
146 -> 148 ;
149 [label="X[8] <= 0.5\ngini = 0.26\nsamples = 39\nvalue = [33, 6]"] ;
145 -> 149 ;
150 [label="X[2] <= 0.5\ngini = 0.444\nsamples = 9\nvalue = [6, 3]"] ;
149 -> 150 ;
151 [label="X[5] <= 1.5\ngini = 0.375\nsamples = 8\nvalue = [6, 2]"] ;
150 -> 151 ;
152 [label="gini = 0.5\nsamples = 2\nvalue = [1, 1]"] ;
151 -> 152 ;
153 [label="gini = 0.278\nsamples = 6\nvalue = [5, 1]"] ;
151 -> 153 ;
154 [label="gini = 0.0\nsamples = 1\nvalue = [0, 1]"] ;
150 -> 154 ;
155 [label="X[6] <= 0.5\ngini = 0.18\nsamples = 30\nvalue = [27, 3]"] ;
149 -> 155 ;
156 [label="gini = 0.0\nsamples = 5\nvalue = [5, 0]"] ;
155 -> 156 ;
157 [label="X[4] <= 1.5\ngini = 0.211\nsamples = 25\nvalue = [22, 3]"] ;
155 -> 157 ;
158 [label="X[5] <= 1.5\ngini = 0.245\nsamples = 14\nvalue = [12, 2]"] ;
157 -> 158 ;
159 [label="gini = 0.0\nsamples = 7\nvalue = [7, 0]"] ;
158 -> 159 ;
160 [label="gini = 0.408\nsamples = 7\nvalue = [5, 2]"] ;
158 -> 160 ;
161 [label="X[5] <= 1.5\ngini = 0.165\nsamples = 11\nvalue = [10, 1]"] ;
157 -> 161 ;
162 [label="gini = 0.444\nsamples = 3\nvalue = [2, 1]"] ;
161 -> 162 ;
163 [label="gini = 0.0\nsamples = 8\nvalue = [8, 0]"] ;
161 -> 163 ;
164 [label="X[11] <= 0.5\ngini = 0.49\nsamples = 7\nvalue = [3, 4]"] ;
144 -> 164 ;
165 [label="X[2] <= 0.5\ngini = 0.444\nsamples = 6\nvalue = [2, 4]"] ;
164 -> 165 ;
166 [label="X[5] <= 1.5\ngini = 0.48\nsamples = 5\nvalue = [2, 3]"] ;
165 -> 166 ;
167 [label="X[4] <= 0.5\ngini = 0.375\nsamples = 4\nvalue = [1, 3]"] ;
166 -> 167 ;
168 [label="gini = 0.0\nsamples = 1\nvalue = [1, 0]"] ;
167 -> 168 ;
169 [label="gini = 0.0\nsamples = 3\nvalue = [0, 3]"] ;
167 -> 169 ;
170 [label="gini = 0.0\nsamples = 1\nvalue = [1, 0]"] ;
166 -> 170 ;
171 [label="gini = 0.0\nsamples = 1\nvalue = [0, 1]"] ;
165 -> 171 ;
172 [label="gini = 0.0\nsamples = 1\nvalue = [1, 0]"] ;
164 -> 172 ;
173 [label="X[12] <= 1.5\ngini = 0.347\nsamples = 264\nvalue = [59, 205]"] ;
143 -> 173 ;
174 [label="X[8] <= 0.5\ngini = 0.102\nsamples = 149\nvalue = [8, 141]"] ;
173 -> 174 ;
175 [label="X[5] <= 1.5\ngini = 0.415\nsamples = 17\nvalue = [5, 12]"] ;
174 -> 175 ;
176 [label="gini = 0.0\nsamples = 6\nvalue = [0, 6]"] ;
175 -> 176 ;
177 [label="X[4] <= 1.0\ngini = 0.496\nsamples = 11\nvalue = [5, 6]"] ;
175 -> 177 ;
178 [label="X[6] <= 1.0\ngini = 0.375\nsamples = 8\nvalue = [2, 6]"] ;
177 -> 178 ;
179 [label="gini = 0.408\nsamples = 7\nvalue = [2, 5]"] ;
178 -> 179 ;
180 [label="gini = 0.0\nsamples = 1\nvalue = [0, 1]"] ;
178 -> 180 ;
181 [label="gini = 0.0\nsamples = 3\nvalue = [3, 0]"] ;
177 -> 181 ;
182 [label="X[4] <= 1.5\ngini = 0.044\nsamples = 132\nvalue = [3, 129]"] ;
174 -> 182 ;
183 [label="gini = 0.0\nsamples = 88\nvalue = [0, 88]"] ;
182 -> 183 ;
184 [label="X[5] <= 1.5\ngini = 0.127\nsamples = 44\nvalue = [3, 41]"] ;
182 -> 184 ;
185 [label="gini = 0.0\nsamples = 18\nvalue = [0, 18]"] ;
184 -> 185 ;
186 [label="X[3] <= 0.5\ngini = 0.204\nsamples = 26\nvalue = [3, 23]"] ;
184 -> 186 ;
187 [label="X[6] <= 0.5\ngini = 0.236\nsamples = 22\nvalue = [3, 19]"] ;
186 -> 187 ;
188 [label="X[11] <= 0.5\ngini = 0.346\nsamples = 9\nvalue = [2, 7]"] ;
187 -> 188 ;
189 [label="X[2] <= 0.5\ngini = 0.444\nsamples = 6\nvalue = [2, 4]"] ;
188 -> 189 ;
190 [label="gini = 0.48\nsamples = 5\nvalue = [2, 3]"] ;
189 -> 190 ;
191 [label="gini = 0.0\nsamples = 1\nvalue = [0, 1]"] ;
189 -> 191 ;
192 [label="gini = 0.0\nsamples = 3\nvalue = [0, 3]"] ;
188 -> 192 ;
193 [label="X[8] <= 1.5\ngini = 0.142\nsamples = 13\nvalue = [1, 12]"] ;
187 -> 193 ;
194 [label="gini = 0.0\nsamples = 9\nvalue = [0, 9]"] ;
193 -> 194 ;
195 [label="gini = 0.375\nsamples = 4\nvalue = [1, 3]"] ;
193 -> 195 ;
196 [label="gini = 0.0\nsamples = 4\nvalue = [0, 4]"] ;
186 -> 196 ;
197 [label="X[4] <= 0.5\ngini = 0.494\nsamples = 115\nvalue = [51, 64]"] ;
173 -> 197 ;
198 [label="X[5] <= 1.5\ngini = 0.213\nsamples = 33\nvalue = [4, 29]"] ;
197 -> 198 ;
199 [label="gini = 0.0\nsamples = 17\nvalue = [0, 17]"] ;
198 -> 199 ;
200 [label="X[6] <= 1.5\ngini = 0.375\nsamples = 16\nvalue = [4, 12]"] ;
198 -> 200 ;
201 [label="X[8] <= 0.5\ngini = 0.26\nsamples = 13\nvalue = [2, 11]"] ;
200 -> 201 ;
202 [label="X[2] <= 0.5\ngini = 0.48\nsamples = 5\nvalue = [2, 3]"] ;
201 -> 202 ;
203 [label="gini = 0.444\nsamples = 3\nvalue = [2, 1]"] ;
202 -> 203 ;
204 [label="gini = 0.0\nsamples = 2\nvalue = [0, 2]"] ;
202 -> 204 ;
205 [label="gini = 0.0\nsamples = 8\nvalue = [0, 8]"] ;
201 -> 205 ;
206 [label="X[11] <= 0.5\ngini = 0.444\nsamples = 3\nvalue = [2, 1]"] ;
200 -> 206 ;
207 [label="gini = 0.0\nsamples = 2\nvalue = [2, 0]"] ;
206 -> 207 ;
208 [label="gini = 0.0\nsamples = 1\nvalue = [0, 1]"] ;
206 -> 208 ;
209 [label="X[2] <= 0.5\ngini = 0.489\nsamples = 82\nvalue = [47, 35]"] ;
197 -> 209 ;
210 [label="X[5] <= 1.5\ngini = 0.419\nsamples = 67\nvalue = [47, 20]"] ;
209 -> 210 ;
211 [label="X[6] <= 0.5\ngini = 0.488\nsamples = 26\nvalue = [11, 15]"] ;
210 -> 211 ;
212 [label="X[8] <= 0.5\ngini = 0.444\nsamples = 15\nvalue = [10, 5]"] ;
211 -> 212 ;
213 [label="gini = 0.0\nsamples = 4\nvalue = [0, 4]"] ;
212 -> 213 ;
214 [label="X[4] <= 1.5\ngini = 0.165\nsamples = 11\nvalue = [10, 1]"] ;
212 -> 214 ;
215 [label="gini = 0.0\nsamples = 6\nvalue = [6, 0]"] ;
214 -> 215 ;
216 [label="gini = 0.32\nsamples = 5\nvalue = [4, 1]"] ;
214 -> 216 ;
217 [label="X[4] <= 1.5\ngini = 0.165\nsamples = 11\nvalue = [1, 10]"] ;
211 -> 217 ;
218 [label="gini = 0.0\nsamples = 5\nvalue = [0, 5]"] ;
217 -> 218 ;
219 [label="X[7] <= 0.5\ngini = 0.278\nsamples = 6\nvalue = [1, 5]"] ;
217 -> 219 ;
220 [label="X[6] <= 1.5\ngini = 0.375\nsamples = 4\nvalue = [1, 3]"] ;
219 -> 220 ;
221 [label="gini = 0.444\nsamples = 3\nvalue = [1, 2]"] ;
220 -> 221 ;
222 [label="gini = 0.0\nsamples = 1\nvalue = [0, 1]"] ;
220 -> 222 ;
223 [label="gini = 0.0\nsamples = 2\nvalue = [0, 2]"] ;
219 -> 223 ;
224 [label="X[8] <= 1.5\ngini = 0.214\nsamples = 41\nvalue = [36, 5]"] ;
210 -> 224 ;
225 [label="X[4] <= 1.5\ngini = 0.32\nsamples = 25\nvalue = [20, 5]"] ;
224 -> 225 ;
226 [label="X[6] <= 0.5\ngini = 0.219\nsamples = 8\nvalue = [7, 1]"] ;
225 -> 226 ;
227 [label="gini = 0.245\nsamples = 7\nvalue = [6, 1]"] ;
226 -> 227 ;
228 [label="gini = 0.0\nsamples = 1\nvalue = [1, 0]"] ;
226 -> 228 ;
229 [label="X[6] <= 0.5\ngini = 0.36\nsamples = 17\nvalue = [13, 4]"] ;
225 -> 229 ;
230 [label="X[8] <= 0.5\ngini = 0.32\nsamples = 15\nvalue = [12, 3]"] ;
229 -> 230 ;
231 [label="gini = 0.278\nsamples = 6\nvalue = [5, 1]"] ;
230 -> 231 ;
232 [label="gini = 0.346\nsamples = 9\nvalue = [7, 2]"] ;
230 -> 232 ;
233 [label="gini = 0.5\nsamples = 2\nvalue = [1, 1]"] ;
229 -> 233 ;
234 [label="gini = 0.0\nsamples = 16\nvalue = [16, 0]"] ;
224 -> 234 ;
235 [label="gini = 0.0\nsamples = 15\nvalue = [0, 15]"] ;
209 -> 235 ;
236 [label="X[5] <= 0.5\ngini = 0.265\nsamples = 413\nvalue = [65, 348]"] ;
0 -> 236 [labeldistance=2.5, labelangle=-45, headlabel="False"] ;
237 [label="X[6] <= 0.5\ngini = 0.368\nsamples = 251\nvalue = [61, 190]"] ;
236 -> 237 ;
238 [label="X[12] <= 1.5\ngini = 0.492\nsamples = 62\nvalue = [27, 35]"] ;
237 -> 238 ;
239 [label="X[7] <= 0.5\ngini = 0.485\nsamples = 58\nvalue = [24, 34]"] ;
238 -> 239 ;
240 [label="X[2] <= 0.5\ngini = 0.488\nsamples = 57\nvalue = [24, 33]"] ;
239 -> 240 ;
241 [label="X[8] <= 0.5\ngini = 0.493\nsamples = 50\nvalue = [22, 28]"] ;
240 -> 241 ;
242 [label="X[4] <= 0.5\ngini = 0.444\nsamples = 9\nvalue = [3, 6]"] ;
241 -> 242 ;
243 [label="X[12] <= 0.5\ngini = 0.48\nsamples = 5\nvalue = [3, 2]"] ;
242 -> 243 ;
244 [label="gini = 0.5\nsamples = 2\nvalue = [1, 1]"] ;
243 -> 244 ;
245 [label="gini = 0.444\nsamples = 3\nvalue = [2, 1]"] ;
243 -> 245 ;
246 [label="gini = 0.0\nsamples = 4\nvalue = [0, 4]"] ;
242 -> 246 ;
247 [label="X[4] <= 1.0\ngini = 0.497\nsamples = 41\nvalue = [19, 22]"] ;
241 -> 247 ;
248 [label="gini = 0.484\nsamples = 34\nvalue = [14, 20]"] ;
247 -> 248 ;
249 [label="X[12] <= 0.5\ngini = 0.408\nsamples = 7\nvalue = [5, 2]"] ;
247 -> 249 ;
250 [label="gini = 0.0\nsamples = 1\nvalue = [1, 0]"] ;
249 -> 250 ;
251 [label="gini = 0.444\nsamples = 6\nvalue = [4, 2]"] ;
249 -> 251 ;
252 [label="gini = 0.408\nsamples = 7\nvalue = [2, 5]"] ;
240 -> 252 ;
253 [label="gini = 0.0\nsamples = 1\nvalue = [0, 1]"] ;
239 -> 253 ;
254 [label="X[2] <= 0.5\ngini = 0.375\nsamples = 4\nvalue = [3, 1]"] ;
238 -> 254 ;
255 [label="gini = 0.0\nsamples = 3\nvalue = [3, 0]"] ;
254 -> 255 ;
256 [label="gini = 0.0\nsamples = 1\nvalue = [0, 1]"] ;
254 -> 256 ;
257 [label="X[4] <= 0.5\ngini = 0.295\nsamples = 189\nvalue = [34, 155]"] ;
237 -> 257 ;
258 [label="X[2] <= 0.5\ngini = 0.363\nsamples = 126\nvalue = [30, 96]"] ;
257 -> 258 ;
259 [label="X[7] <= 0.5\ngini = 0.399\nsamples = 91\nvalue = [25, 66]"] ;
258 -> 259 ;
260 [label="X[12] <= 0.5\ngini = 0.245\nsamples = 21\nvalue = [3, 18]"] ;
259 -> 260 ;
261 [label="gini = 0.0\nsamples = 2\nvalue = [0, 2]"] ;
260 -> 261 ;
262 [label="X[8] <= 1.5\ngini = 0.266\nsamples = 19\nvalue = [3, 16]"] ;
260 -> 262 ;
263 [label="X[12] <= 1.5\ngini = 0.278\nsamples = 18\nvalue = [3, 15]"] ;
262 -> 263 ;
264 [label="gini = 0.291\nsamples = 17\nvalue = [3, 14]"] ;
263 -> 264 ;
265 [label="gini = 0.0\nsamples = 1\nvalue = [0, 1]"] ;
263 -> 265 ;
266 [label="gini = 0.0\nsamples = 1\nvalue = [0, 1]"] ;
262 -> 266 ;
267 [label="X[12] <= 1.5\ngini = 0.431\nsamples = 70\nvalue = [22, 48]"] ;
259 -> 267 ;
268 [label="X[11] <= 0.5\ngini = 0.434\nsamples = 69\nvalue = [22, 47]"] ;
267 -> 268 ;
269 [label="gini = 0.434\nsamples = 66\nvalue = [21, 45]"] ;
268 -> 269 ;
270 [label="gini = 0.444\nsamples = 3\nvalue = [1, 2]"] ;
268 -> 270 ;
271 [label="gini = 0.0\nsamples = 1\nvalue = [0, 1]"] ;
267 -> 271 ;
272 [label="X[12] <= 1.5\ngini = 0.245\nsamples = 35\nvalue = [5, 30]"] ;
258 -> 272 ;
273 [label="X[11] <= 0.5\ngini = 0.251\nsamples = 34\nvalue = [5, 29]"] ;
272 -> 273 ;
274 [label="X[8] <= 1.5\ngini = 0.257\nsamples = 33\nvalue = [5, 28]"] ;
273 -> 274 ;
275 [label="X[7] <= 0.5\ngini = 0.264\nsamples = 32\nvalue = [5, 27]"] ;
274 -> 275 ;
276 [label="gini = 0.245\nsamples = 7\nvalue = [1, 6]"] ;
275 -> 276 ;
277 [label="gini = 0.269\nsamples = 25\nvalue = [4, 21]"] ;
275 -> 277 ;
278 [label="gini = 0.0\nsamples = 1\nvalue = [0, 1]"] ;
274 -> 278 ;
279 [label="gini = 0.0\nsamples = 1\nvalue = [0, 1]"] ;
273 -> 279 ;
280 [label="gini = 0.0\nsamples = 1\nvalue = [0, 1]"] ;
272 -> 280 ;
281 [label="X[6] <= 1.5\ngini = 0.119\nsamples = 63\nvalue = [4, 59]"] ;
257 -> 281 ;
282 [label="X[12] <= 0.5\ngini = 0.092\nsamples = 62\nvalue = [3, 59]"] ;
281 -> 282 ;
283 [label="X[2] <= 0.5\ngini = 0.444\nsamples = 3\nvalue = [1, 2]"] ;
282 -> 283 ;
284 [label="gini = 0.0\nsamples = 2\nvalue = [0, 2]"] ;
283 -> 284 ;
285 [label="gini = 0.0\nsamples = 1\nvalue = [1, 0]"] ;
283 -> 285 ;
286 [label="X[2] <= 0.5\ngini = 0.065\nsamples = 59\nvalue = [2, 57]"] ;
282 -> 286 ;
287 [label="X[7] <= 0.5\ngini = 0.172\nsamples = 21\nvalue = [2, 19]"] ;
286 -> 287 ;
288 [label="gini = 0.0\nsamples = 4\nvalue = [0, 4]"] ;
287 -> 288 ;
289 [label="X[4] <= 1.5\ngini = 0.208\nsamples = 17\nvalue = [2, 15]"] ;
287 -> 289 ;
290 [label="gini = 0.0\nsamples = 4\nvalue = [0, 4]"] ;
289 -> 290 ;
291 [label="gini = 0.26\nsamples = 13\nvalue = [2, 11]"] ;
289 -> 291 ;
292 [label="gini = 0.0\nsamples = 38\nvalue = [0, 38]"] ;
286 -> 292 ;
293 [label="gini = 0.0\nsamples = 1\nvalue = [1, 0]"] ;
281 -> 293 ;
294 [label="X[12] <= 1.5\ngini = 0.048\nsamples = 162\nvalue = [4, 158]"] ;
236 -> 294 ;
295 [label="X[2] <= 0.5\ngini = 0.025\nsamples = 157\nvalue = [2, 155]"] ;
294 -> 295 ;
296 [label="X[4] <= 0.5\ngini = 0.053\nsamples = 74\nvalue = [2, 72]"] ;
295 -> 296 ;
297 [label="gini = 0.0\nsamples = 40\nvalue = [0, 40]"] ;
296 -> 297 ;
298 [label="X[4] <= 1.5\ngini = 0.111\nsamples = 34\nvalue = [2, 32]"] ;
296 -> 298 ;
299 [label="X[6] <= 0.5\ngini = 0.231\nsamples = 15\nvalue = [2, 13]"] ;
298 -> 299 ;
300 [label="gini = 0.0\nsamples = 5\nvalue = [0, 5]"] ;
299 -> 300 ;
301 [label="X[0] <= 0.5\ngini = 0.32\nsamples = 10\nvalue = [2, 8]"] ;
299 -> 301 ;
302 [label="X[11] <= 0.5\ngini = 0.346\nsamples = 9\nvalue = [2, 7]"] ;
301 -> 302 ;
303 [label="X[5] <= 1.5\ngini = 0.375\nsamples = 8\nvalue = [2, 6]"] ;
302 -> 303 ;
304 [label="X[7] <= 0.5\ngini = 0.444\nsamples = 3\nvalue = [1, 2]"] ;
303 -> 304 ;
305 [label="gini = 0.5\nsamples = 2\nvalue = [1, 1]"] ;
304 -> 305 ;
306 [label="gini = 0.0\nsamples = 1\nvalue = [0, 1]"] ;
304 -> 306 ;
307 [label="X[7] <= 0.5\ngini = 0.32\nsamples = 5\nvalue = [1, 4]"] ;
303 -> 307 ;
308 [label="gini = 0.0\nsamples = 1\nvalue = [0, 1]"] ;
307 -> 308 ;
309 [label="gini = 0.375\nsamples = 4\nvalue = [1, 3]"] ;
307 -> 309 ;
310 [label="gini = 0.0\nsamples = 1\nvalue = [0, 1]"] ;
302 -> 310 ;
311 [label="gini = 0.0\nsamples = 1\nvalue = [0, 1]"] ;
301 -> 311 ;
312 [label="gini = 0.0\nsamples = 19\nvalue = [0, 19]"] ;
298 -> 312 ;
313 [label="gini = 0.0\nsamples = 83\nvalue = [0, 83]"] ;
295 -> 313 ;
314 [label="X[2] <= 0.5\ngini = 0.48\nsamples = 5\nvalue = [2, 3]"] ;
294 -> 314 ;
315 [label="X[8] <= 0.5\ngini = 0.444\nsamples = 3\nvalue = [2, 1]"] ;
314 -> 315 ;
316 [label="gini = 0.0\nsamples = 1\nvalue = [0, 1]"] ;
315 -> 316 ;
317 [label="gini = 0.0\nsamples = 2\nvalue = [2, 0]"] ;
315 -> 317 ;
318 [label="gini = 0.0\nsamples = 2\nvalue = [0, 2]"] ;
314 -> 318 ;
}
